digraph Tree {
node [shape=box, style="filled, rounded", color="black", fontname=helvetica] ;
edge [fontname=helvetica] ;
0 [label="petal width (cm) <= 0.8\ngini = 0.66\nsamples = 90\nvalue = [46, 56, 48]\nclass = versicolor", fillcolor="#effdf5"] ;
1 [label="gini = 0.0\nsamples = 31\nvalue = [46, 0, 0]\nclass = setosa", fillcolor="#e58139"] ;
0 -> 1 [labeldistance=2.5, labelangle=45, headlabel="True"] ;
2 [label="sepal length (cm) <= 6.2\ngini = 0.5\nsamples = 59\nvalue = [0, 56, 48]\nclass = versicolor", fillcolor="#e3fbed"] ;
0 -> 2 [labeldistance=2.5, labelangle=-45, headlabel="False"] ;
3 [label="petal width (cm) <= 1.7\ngini = 0.33\nsamples = 28\nvalue = [0, 34, 9]\nclass = versicolor", fillcolor="#6deca2"] ;
2 -> 3 ;
4 [label="petal length (cm) <= 4.85\ngini = 0.06\nsamples = 22\nvalue = [0, 32, 1]\nclass = versicolor", fillcolor="#3fe685"] ;
3 -> 4 ;
5 [label="gini = 0.0\nsamples = 20\nvalue = [0, 31, 0]\nclass = versicolor", fillcolor="#39e581"] ;
4 -> 5 ;
6 [label="petal length (cm) <= 5.05\ngini = 0.5\nsamples = 2\nvalue = [0, 1, 1]\nclass = versicolor", fillcolor="#ffffff"] ;
4 -> 6 ;
7 [label="gini = 0.0\nsamples = 1\nvalue = [0, 0, 1]\nclass = virginica", fillcolor="#8139e5"] ;
6 -> 7 ;
8 [label="gini = 0.0\nsamples = 1\nvalue = [0, 1, 0]\nclass = versicolor", fillcolor="#39e581"] ;
6 -> 8 ;
9 [label="petal length (cm) <= 4.85\ngini = 0.32\nsamples = 6\nvalue = [0, 2, 8]\nclass = virginica", fillcolor="#a06aec"] ;
3 -> 9 ;
10 [label="sepal width (cm) <= 3.1\ngini = 0.48\nsamples = 2\nvalue = [0, 2, 3]\nclass = virginica", fillcolor="#d5bdf6"] ;
9 -> 10 ;
11 [label="gini = 0.0\nsamples = 1\nvalue = [0, 0, 3]\nclass = virginica", fillcolor="#8139e5"] ;
10 -> 11 ;
12 [label="gini = 0.0\nsamples = 1\nvalue = [0, 2, 0]\nclass = versicolor", fillcolor="#39e581"] ;
10 -> 12 ;
13 [label="gini = 0.0\nsamples = 4\nvalue = [0, 0, 5]\nclass = virginica", fillcolor="#8139e5"] ;
9 -> 13 ;
14 [label="petal width (cm) <= 1.75\ngini = 0.46\nsamples = 31\nvalue = [0, 22, 39]\nclass = virginica", fillcolor="#c8a9f4"] ;
2 -> 14 ;
15 [label="sepal width (cm) <= 2.9\ngini = 0.15\nsamples = 11\nvalue = [0, 22, 2]\nclass = versicolor", fillcolor="#4be78c"] ;
14 -> 15 ;
16 [label="sepal width (cm) <= 2.65\ngini = 0.44\nsamples = 4\nvalue = [0, 4, 2]\nclass = versicolor", fillcolor="#9cf2c0"] ;
15 -> 16 ;
17 [label="gini = 0.0\nsamples = 2\nvalue = [0, 3, 0]\nclass = versicolor", fillcolor="#39e581"] ;
16 -> 17 ;
18 [label="sepal length (cm) <= 6.4\ngini = 0.44\nsamples = 2\nvalue = [0, 1, 2]\nclass = virginica", fillcolor="#c09cf2"] ;
16 -> 18 ;
19 [label="gini = 0.0\nsamples = 1\nvalue = [0, 0, 2]\nclass = virginica", fillcolor="#8139e5"] ;
18 -> 19 ;
20 [label="gini = 0.0\nsamples = 1\nvalue = [0, 1, 0]\nclass = versicolor", fillcolor="#39e581"] ;
18 -> 20 ;
21 [label="gini = 0.0\nsamples = 7\nvalue = [0, 18, 0]\nclass = versicolor", fillcolor="#39e581"] ;
15 -> 21 ;
22 [label="gini = 0.0\nsamples = 20\nvalue = [0, 0, 37]\nclass = virginica", fillcolor="#8139e5"] ;
14 -> 22 ;
}